digraph Tree {
node [shape=box, fontname="helvetica"] ;
edge [fontname="helvetica"] ;
0 [label="52_week_high <= 475.235\nsquared_error = 27081.959\nsamples = 303\nvalue = 111.938"] ;
1 [label="52_week_low <= 169.755\nsquared_error = 5855.169\nsamples = 298\nvalue = 94.07"] ;
0 -> 1 [labeldistance=2.5, labelangle=45, headlabel="True"] ;
2 [label="52_week_low <= 89.195\nsquared_error = 1130.003\nsamples = 248\nvalue = 67.864"] ;
1 -> 2 ;
3 [label="52_week_high <= 34.89\nsquared_error = 312.696\nsamples = 157\nvalue = 46.495"] ;
2 -> 3 ;
4 [label="52_week_high <= 19.46\nsquared_error = 99.188\nsamples = 63\nvalue = 28.997"] ;
3 -> 4 ;
5 [label="52_week_high <= 14.66\nsquared_error = 27.052\nsamples = 16\nvalue = 15.594"] ;
4 -> 5 ;
6 [label="52_week_high <= 6.25\nsquared_error = 13.54\nsamples = 9\nvalue = 11.924"] ;
5 -> 6 ;
7 [label="squared_error = 0.0\nsamples = 1\nvalue = 2.82"] ;
6 -> 7 ;
8 [label="earnings_share <= 0.625\nsquared_error = 3.576\nsamples = 8\nvalue = 13.063"] ;
6 -> 8 ;
9 [label="market_cap <= 6388882432.0\nsquared_error = 1.243\nsamples = 5\nvalue = 11.838"] ;
8 -> 9 ;
10 [label="52_week_low <= 22.632\nsquared_error = 0.253\nsamples = 3\nvalue = 12.637"] ;
9 -> 10 ;
11 [label="squared_error = 0.0\nsamples = 1\nvalue = 11.95"] ;
10 -> 11 ;
12 [label="name=Under Armour Class A <= 0.5\nsquared_error = 0.026\nsamples = 2\nvalue = 12.98"] ;
10 -> 12 ;
13 [label="squared_error = 0.0\nsamples = 1\nvalue = 12.82"] ;
12 -> 13 ;
14 [label="squared_error = 0.0\nsamples = 1\nvalue = 13.14"] ;
12 -> 14 ;
15 [label="name=AES Corp <= 0.5\nsquared_error = 0.336\nsamples = 2\nvalue = 10.64"] ;
9 -> 15 ;
16 [label="squared_error = 0.0\nsamples = 1\nvalue = 11.22"] ;
15 -> 16 ;
17 [label="squared_error = 0.0\nsamples = 1\nvalue = 10.06"] ;
15 -> 17 ;
18 [label="symbol=CTL <= 0.5\nsquared_error = 0.799\nsamples = 3\nvalue = 15.103"] ;
8 -> 18 ;
19 [label="ebitda <= 350595008.0\nsquared_error = 0.297\nsamples = 2\nvalue = 14.555"] ;
18 -> 19 ;
20 [label="squared_error = 0.0\nsamples = 1\nvalue = 15.1"] ;
19 -> 20 ;
21 [label="squared_error = 0.0\nsamples = 1\nvalue = 14.01"] ;
19 -> 21 ;
22 [label="squared_error = 0.0\nsamples = 1\nvalue = 16.2"] ;
18 -> 22 ;
23 [label="52_week_low <= 23.425\nsquared_error = 4.858\nsamples = 7\nvalue = 20.311"] ;
5 -> 23 ;
24 [label="name=People's United Financial <= 0.5\nsquared_error = 0.774\nsamples = 2\nvalue = 17.68"] ;
23 -> 24 ;
25 [label="squared_error = 0.0\nsamples = 1\nvalue = 16.8"] ;
24 -> 25 ;
26 [label="squared_error = 0.0\nsamples = 1\nvalue = 18.56"] ;
24 -> 26 ;
27 [label="price_earnings <= 18.76\nsquared_error = 2.613\nsamples = 5\nvalue = 21.364"] ;
23 -> 27 ;
28 [label="price_sales <= 1.674\nsquared_error = 0.876\nsamples = 4\nvalue = 20.672"] ;
27 -> 28 ;
29 [label="52_week_low <= 24.915\nsquared_error = 0.031\nsamples = 2\nvalue = 19.745"] ;
28 -> 29 ;
30 [label="squared_error = 0.0\nsamples = 1\nvalue = 19.92"] ;
29 -> 30 ;
31 [label="squared_error = 0.0\nsamples = 1\nvalue = 19.57"] ;
29 -> 31 ;
32 [label="dividend_yield <= 2.003\nsquared_error = 0.0\nsamples = 2\nvalue = 21.6"] ;
28 -> 32 ;
33 [label="squared_error = 0.0\nsamples = 1\nvalue = 21.58"] ;
32 -> 33 ;
34 [label="squared_error = -0.0\nsamples = 1\nvalue = 21.62"] ;
32 -> 34 ;
35 [label="squared_error = 0.0\nsamples = 1\nvalue = 24.13"] ;
27 -> 35 ;
36 [label="52_week_low <= 40.64\nsquared_error = 41.773\nsamples = 47\nvalue = 33.559"] ;
4 -> 36 ;
37 [label="52_week_low <= 33.73\nsquared_error = 10.862\nsamples = 21\nvalue = 28.552"] ;
36 -> 37 ;
38 [label="symbol=WMB <= 0.5\nsquared_error = 2.959\nsamples = 7\nvalue = 25.03"] ;
37 -> 38 ;
39 [label="name=HCP Inc. <= 0.5\nsquared_error = 1.029\nsamples = 6\nvalue = 24.442"] ;
38 -> 39 ;
40 [label="price_book <= 2.495\nsquared_error = 0.456\nsamples = 5\nvalue = 24.802"] ;
39 -> 40 ;
41 [label="symbol=LUK <= 0.5\nsquared_error = 0.115\nsamples = 3\nvalue = 24.323"] ;
40 -> 41 ;
42 [label="name=Arconic Inc <= 0.5\nsquared_error = 0.011\nsamples = 2\nvalue = 24.555"] ;
41 -> 42 ;
43 [label="squared_error = 0.0\nsamples = 1\nvalue = 24.66"] ;
42 -> 43 ;
44 [label="squared_error = -0.0\nsamples = 1\nvalue = 24.45"] ;
42 -> 44 ;
45 [label="squared_error = 0.0\nsamples = 1\nvalue = 23.86"] ;
41 -> 45 ;
46 [label="52_week_low <= 31.125\nsquared_error = 0.109\nsamples = 2\nvalue = 25.52"] ;
40 -> 46 ;
47 [label="squared_error = 0.0\nsamples = 1\nvalue = 25.85"] ;
46 -> 47 ;
48 [label="squared_error = -0.0\nsamples = 1\nvalue = 25.19"] ;
46 -> 48 ;
49 [label="squared_error = -0.0\nsamples = 1\nvalue = 22.64"] ;
39 -> 49 ;
50 [label="squared_error = -0.0\nsamples = 1\nvalue = 28.56"] ;
38 -> 50 ;
51 [label="market_cap <= 34893187072.0\nsquared_error = 5.508\nsamples = 14\nvalue = 30.314"] ;
37 -> 51 ;
52 [label="name=Noble Energy Inc <= 0.5\nsquared_error = 3.288\nsamples = 12\nvalue = 29.645"] ;
51 -> 52 ;
53 [label="ebitda <= 2506999936.0\nsquared_error = 1.825\nsamples = 11\nvalue = 30.028"] ;
52 -> 53 ;
54 [label="earnings_share <= 1.505\nsquared_error = 1.081\nsamples = 9\nvalue = 30.477"] ;
53 -> 54 ;
55 [label="52_week_high <= 25.585\nsquared_error = 0.557\nsamples = 4\nvalue = 29.552"] ;
54 -> 55 ;
56 [label="symbol=FTI <= 0.5\nsquared_error = 0.046\nsamples = 2\nvalue = 28.885"] ;
55 -> 56 ;
57 [label="squared_error = 0.0\nsamples = 1\nvalue = 28.67"] ;
56 -> 57 ;
58 [label="squared_error = 0.0\nsamples = 1\nvalue = 29.1"] ;
56 -> 58 ;
59 [label="symbol=FE <= 0.5\nsquared_error = 0.176\nsamples = 2\nvalue = 30.22"] ;
55 -> 59 ;
60 [label="squared_error = 0.0\nsamples = 1\nvalue = 29.8"] ;
59 -> 60 ;
61 [label="squared_error = 0.0\nsamples = 1\nvalue = 30.64"] ;
59 -> 61 ;
62 [label="sector=Consumer Staples <= 0.5\nsquared_error = 0.271\nsamples = 5\nvalue = 31.216"] ;
54 -> 62 ;
63 [label="dividend_yield <= 1.826\nsquared_error = 0.03\nsamples = 4\nvalue = 30.968"] ;
62 -> 63 ;
64 [label="market_cap <= 6689534720.0\nsquared_error = 0.002\nsamples = 2\nvalue = 30.8"] ;
63 -> 64 ;
65 [label="squared_error = 0.0\nsamples = 1\nvalue = 30.85"] ;
64 -> 65 ;
66 [label="squared_error = 0.0\nsamples = 1\nvalue = 30.75"] ;
64 -> 66 ;
67 [label="sector=Consumer Discretionary <= 0.5\nsquared_error = 0.001\nsamples = 2\nvalue = 31.135"] ;
63 -> 67 ;
68 [label="squared_error = 0.0\nsamples = 1\nvalue = 31.1"] ;
67 -> 68 ;
69 [label="squared_error = 0.0\nsamples = 1\nvalue = 31.17"] ;
67 -> 69 ;
70 [label="squared_error = 0.0\nsamples = 1\nvalue = 32.21"] ;
62 -> 70 ;
71 [label="market_cap <= 25615318016.0\nsquared_error = 0.194\nsamples = 2\nvalue = 28.01"] ;
53 -> 71 ;
72 [label="squared_error = 0.0\nsamples = 1\nvalue = 27.57"] ;
71 -> 72 ;
73 [label="squared_error = 0.0\nsamples = 1\nvalue = 28.45"] ;
71 -> 73 ;
74 [label="squared_error = -0.0\nsamples = 1\nvalue = 25.43"] ;
52 -> 74 ;
75 [label="symbol=FOXA <= 0.5\nsquared_error = 0.055\nsamples = 2\nvalue = 34.325"] ;
51 -> 75 ;
76 [label="squared_error = 0.0\nsamples = 1\nvalue = 34.09"] ;
75 -> 76 ;
77 [label="squared_error = 0.0\nsamples = 1\nvalue = 34.56"] ;
75 -> 77 ;
78 [label="sector=Energy <= 0.5\nsquared_error = 30.136\nsamples = 26\nvalue = 37.603"] ;
36 -> 78 ;
79 [label="name=Newell Brands <= 0.5\nsquared_error = 22.075\nsamples = 22\nvalue = 38.92"] ;
78 -> 79 ;
80 [label="52_week_low <= 51.385\nsquared_error = 17.08\nsamples = 21\nvalue = 39.444"] ;
79 -> 80 ;
81 [label="dividend_yield <= 2.232\nsquared_error = 8.104\nsamples = 16\nvalue = 38.041"] ;
80 -> 81 ;
82 [label="52_week_low <= 46.222\nsquared_error = 2.811\nsamples = 8\nvalue = 39.88"] ;
81 -> 82 ;
83 [label="earnings_share <= 1.12\nsquared_error = 0.721\nsamples = 3\nvalue = 37.957"] ;
82 -> 83 ;
84 [label="squared_error = 0.0\nsamples = 1\nvalue = 36.82"] ;
83 -> 84 ;
85 [label="market_cap <= 99473467392.0\nsquared_error = 0.112\nsamples = 2\nvalue = 38.525"] ;
83 -> 85 ;
86 [label="squared_error = 0.0\nsamples = 1\nvalue = 38.86"] ;
85 -> 86 ;
87 [label="squared_error = 0.0\nsamples = 1\nvalue = 38.19"] ;
85 -> 87 ;
88 [label="name=Citizens Financial Group <= 0.5\nsquared_error = 0.514\nsamples = 5\nvalue = 41.034"] ;
82 -> 88 ;
89 [label="52_week_low <= 48.58\nsquared_error = 0.224\nsamples = 4\nvalue = 40.745"] ;
88 -> 89 ;
90 [label="price_book <= 7.865\nsquared_error = 0.053\nsamples = 3\nvalue = 40.993"] ;
89 -> 90 ;
91 [label="sector=Financials <= 0.5\nsquared_error = 0.014\nsamples = 2\nvalue = 41.14"] ;
90 -> 91 ;
92 [label="squared_error = 0.0\nsamples = 1\nvalue = 41.02"] ;
91 -> 92 ;
93 [label="squared_error = 0.0\nsamples = 1\nvalue = 41.26"] ;
91 -> 93 ;
94 [label="squared_error = -0.0\nsamples = 1\nvalue = 40.7"] ;
90 -> 94 ;
95 [label="squared_error = 0.0\nsamples = 1\nvalue = 40.0"] ;
89 -> 95 ;
96 [label="squared_error = 0.0\nsamples = 1\nvalue = 42.19"] ;
88 -> 96 ;
97 [label="symbol=GM <= 0.5\nsquared_error = 6.631\nsamples = 8\nvalue = 36.201"] ;
81 -> 97 ;
98 [label="price_sales <= 1.243\nsquared_error = 4.2\nsamples = 7\nvalue = 35.551"] ;
97 -> 98 ;
99 [label="52_week_high <= 27.1\nsquared_error = 0.007\nsamples = 2\nvalue = 32.795"] ;
98 -> 99 ;
100 [label="squared_error = 0.0\nsamples = 1\nvalue = 32.71"] ;
99 -> 100 ;
101 [label="squared_error = 0.0\nsamples = 1\nvalue = 32.88"] ;
99 -> 101 ;
102 [label="price_sales <= 2.417\nsquared_error = 1.622\nsamples = 5\nvalue = 36.654"] ;
98 -> 102 ;
103 [label="price_sales <= 1.401\nsquared_error = 0.046\nsamples = 3\nvalue = 35.68"] ;
102 -> 103 ;
104 [label="squared_error = 0.0\nsamples = 1\nvalue = 35.98"] ;
103 -> 104 ;
105 [label="52_week_low <= 42.19\nsquared_error = 0.002\nsamples = 2\nvalue = 35.53"] ;
103 -> 105 ;
106 [label="squared_error = 0.0\nsamples = 1\nvalue = 35.49"] ;
105 -> 106 ;
107 [label="squared_error = 0.0\nsamples = 1\nvalue = 35.57"] ;
105 -> 107 ;
108 [label="52_week_high <= 27.7\nsquared_error = 0.429\nsamples = 2\nvalue = 38.115"] ;
102 -> 108 ;
109 [label="squared_error = 0.0\nsamples = 1\nvalue = 37.46"] ;
108 -> 109 ;
110 [label="squared_error = 0.0\nsamples = 1\nvalue = 38.77"] ;
108 -> 110 ;
111 [label="squared_error = 0.0\nsamples = 1\nvalue = 40.75"] ;
97 -> 111 ;
112 [label="dividend_yield <= 0.54\nsquared_error = 19.339\nsamples = 5\nvalue = 43.934"] ;
80 -> 112 ;
113 [label="squared_error = 0.0\nsamples = 1\nvalue = 35.34"] ;
112 -> 113 ;
114 [label="market_cap <= 15752036352.0\nsquared_error = 1.094\nsamples = 4\nvalue = 46.082"] ;
112 -> 114 ;
115 [label="name=Seagate Technology <= 0.5\nsquared_error = 0.414\nsamples = 3\nvalue = 46.593"] ;
114 -> 115 ;
116 [label="dividend_yield <= 1.911\nsquared_error = 0.084\nsamples = 2\nvalue = 46.17"] ;
115 -> 116 ;
117 [label="squared_error = 0.0\nsamples = 1\nvalue = 46.46"] ;
116 -> 117 ;
118 [label="squared_error = 0.0\nsamples = 1\nvalue = 45.88"] ;
116 -> 118 ;
119 [label="squared_error = 0.0\nsamples = 1\nvalue = 47.44"] ;
115 -> 119 ;
120 [label="squared_error = -0.0\nsamples = 1\nvalue = 44.55"] ;
114 -> 120 ;
121 [label="squared_error = 0.0\nsamples = 1\nvalue = 27.91"] ;
79 -> 121 ;
122 [label="52_week_high <= 28.412\nsquared_error = 12.549\nsamples = 4\nvalue = 30.365"] ;
78 -> 122 ;
123 [label="name=Newfield Exploration Co <= 0.5\nsquared_error = 0.314\nsamples = 2\nvalue = 26.94"] ;
122 -> 123 ;
124 [label="squared_error = 0.0\nsamples = 1\nvalue = 27.5"] ;
123 -> 124 ;
125 [label="squared_error = 0.0\nsamples = 1\nvalue = 26.38"] ;
123 -> 125 ;
126 [label="name=Devon Energy Corp. <= 0.5\nsquared_error = 1.322\nsamples = 2\nvalue = 33.79"] ;
122 -> 126 ;
127 [label="squared_error = 0.0\nsamples = 1\nvalue = 32.64"] ;
126 -> 127 ;
128 [label="squared_error = 0.0\nsamples = 1\nvalue = 34.94"] ;
126 -> 128 ;
129 [label="52_week_low <= 72.73\nsquared_error = 113.042\nsamples = 94\nvalue = 58.223"] ;
3 -> 129 ;
130 [label="52_week_high <= 44.615\nsquared_error = 51.223\nsamples = 57\nvalue = 51.764"] ;
129 -> 130 ;
131 [label="sector=Utilities <= 0.5\nsquared_error = 39.064\nsamples = 31\nvalue = 47.659"] ;
130 -> 131 ;
132 [label="52_week_low <= 67.82\nsquared_error = 29.532\nsamples = 25\nvalue = 49.382"] ;
131 -> 132 ;
133 [label="52_week_low <= 52.46\nsquared_error = 20.123\nsamples = 22\nvalue = 48.132"] ;
132 -> 133 ;
134 [label="price_earnings <= 6.335\nsquared_error = 15.847\nsamples = 4\nvalue = 42.572"] ;
133 -> 134 ;
135 [label="squared_error = 0.0\nsamples = 1\nvalue = 48.85"] ;
134 -> 135 ;
136 [label="market_cap <= 14880563712.0\nsquared_error = 3.615\nsamples = 3\nvalue = 40.48"] ;
134 -> 136 ;
137 [label="name=Sealed Air <= 0.5\nsquared_error = 0.81\nsamples = 2\nvalue = 41.72"] ;
136 -> 137 ;
138 [label="squared_error = 0.0\nsamples = 1\nvalue = 40.82"] ;
137 -> 138 ;
139 [label="squared_error = -0.0\nsamples = 1\nvalue = 42.62"] ;
137 -> 139 ;
140 [label="squared_error = 0.0\nsamples = 1\nvalue = 38.0"] ;
136 -> 140 ;
141 [label="price_earnings <= 19.355\nsquared_error = 12.679\nsamples = 18\nvalue = 49.367"] ;
133 -> 141 ;
142 [label="earnings_share <= 3.075\nsquared_error = 6.857\nsamples = 11\nvalue = 47.69"] ;
141 -> 142 ;
143 [label="market_cap <= 12068936192.0\nsquared_error = 4.945\nsamples = 7\nvalue = 46.457"] ;
142 -> 143 ;
144 [label="sector=Financials <= 0.5\nsquared_error = 2.473\nsamples = 3\nvalue = 48.493"] ;
143 -> 144 ;
145 [label="dividend_yield <= 3.012\nsquared_error = 0.024\nsamples = 2\nvalue = 47.385"] ;
144 -> 145 ;
146 [label="squared_error = 0.0\nsamples = 1\nvalue = 47.23"] ;
145 -> 146 ;
147 [label="squared_error = 0.0\nsamples = 1\nvalue = 47.54"] ;
145 -> 147 ;
148 [label="squared_error = -0.0\nsamples = 1\nvalue = 50.71"] ;
144 -> 148 ;
149 [label="52_week_high <= 41.245\nsquared_error = 1.357\nsamples = 4\nvalue = 44.93"] ;
143 -> 149 ;
150 [label="squared_error = 0.0\nsamples = 1\nvalue = 46.84"] ;
149 -> 150 ;
151 [label="symbol=CPB <= 0.5\nsquared_error = 0.187\nsamples = 3\nvalue = 44.293"] ;
149 -> 151 ;
152 [label="sector=Financials <= 0.5\nsquared_error = 0.065\nsamples = 2\nvalue = 44.025"] ;
151 -> 152 ;
153 [label="squared_error = 0.0\nsamples = 1\nvalue = 43.77"] ;
152 -> 153 ;
154 [label="squared_error = -0.0\nsamples = 1\nvalue = 44.28"] ;
152 -> 154 ;
155 [label="squared_error = 0.0\nsamples = 1\nvalue = 44.83"] ;
151 -> 155 ;
156 [label="price_book <= 4.35\nsquared_error = 2.889\nsamples = 4\nvalue = 49.848"] ;
142 -> 156 ;
157 [label="52_week_high <= 41.935\nsquared_error = 0.078\nsamples = 2\nvalue = 51.51"] ;
156 -> 157 ;
158 [label="squared_error = 0.0\nsamples = 1\nvalue = 51.79"] ;
157 -> 158 ;
159 [label="squared_error = 0.0\nsamples = 1\nvalue = 51.23"] ;
157 -> 159 ;
160 [label="symbol=LB <= 0.5\nsquared_error = 0.172\nsamples = 2\nvalue = 48.185"] ;
156 -> 160 ;
161 [label="squared_error = 0.0\nsamples = 1\nvalue = 48.6"] ;
160 -> 161 ;
162 [label="squared_error = -0.0\nsamples = 1\nvalue = 47.77"] ;
160 -> 162 ;
163 [label="52_week_low <= 59.225\nsquared_error = 10.461\nsamples = 7\nvalue = 52.003"] ;
141 -> 163 ;
164 [label="dividend_yield <= 2.308\nsquared_error = 5.025\nsamples = 3\nvalue = 48.98"] ;
163 -> 164 ;
165 [label="sector=Consumer Staples <= 0.5\nsquared_error = 0.0\nsamples = 2\nvalue = 47.395"] ;
164 -> 165 ;
166 [label="squared_error = 0.0\nsamples = 1\nvalue = 47.41"] ;
165 -> 166 ;
167 [label="squared_error = 0.0\nsamples = 1\nvalue = 47.38"] ;
165 -> 167 ;
168 [label="squared_error = -0.0\nsamples = 1\nvalue = 52.15"] ;
164 -> 168 ;
169 [label="52_week_low <= 61.702\nsquared_error = 2.546\nsamples = 4\nvalue = 54.27"] ;
163 -> 169 ;
170 [label="52_week_low <= 60.952\nsquared_error = 0.24\nsamples = 2\nvalue = 52.75"] ;
169 -> 170 ;
171 [label="squared_error = 0.0\nsamples = 1\nvalue = 52.26"] ;
170 -> 171 ;
172 [label="squared_error = 0.0\nsamples = 1\nvalue = 53.24"] ;
170 -> 172 ;
173 [label="dividend_yield <= 1.691\nsquared_error = 0.23\nsamples = 2\nvalue = 55.79"] ;
169 -> 173 ;
174 [label="squared_error = 0.0\nsamples = 1\nvalue = 55.31"] ;
173 -> 174 ;
175 [label="squared_error = -0.0\nsamples = 1\nvalue = 56.27"] ;
173 -> 175 ;
176 [label="ebitda <= 2700500096.0\nsquared_error = 3.013\nsamples = 3\nvalue = 58.55"] ;
132 -> 176 ;
177 [label="name=Lennar Corp. <= 0.5\nsquared_error = 0.378\nsamples = 2\nvalue = 59.725"] ;
176 -> 177 ;
178 [label="squared_error = 0.0\nsamples = 1\nvalue = 60.34"] ;
177 -> 178 ;
179 [label="squared_error = -0.0\nsamples = 1\nvalue = 59.11"] ;
177 -> 179 ;
180 [label="squared_error = 0.0\nsamples = 1\nvalue = 56.2"] ;
176 -> 180 ;
181 [label="52_week_high <= 39.76\nsquared_error = 14.873\nsamples = 6\nvalue = 40.48"] ;
131 -> 181 ;
182 [label="52_week_high <= 36.075\nsquared_error = 1.172\nsamples = 3\nvalue = 36.993"] ;
181 -> 182 ;
183 [label="squared_error = 0.0\nsamples = 1\nvalue = 35.6"] ;
182 -> 183 ;
184 [label="price_book <= 1.61\nsquared_error = 0.302\nsamples = 2\nvalue = 37.69"] ;
182 -> 184 ;
185 [label="squared_error = 0.0\nsamples = 1\nvalue = 38.24"] ;
184 -> 185 ;
186 [label="squared_error = 0.0\nsamples = 1\nvalue = 37.14"] ;
184 -> 186 ;
187 [label="earnings_share <= 1.87\nsquared_error = 4.261\nsamples = 3\nvalue = 43.967"] ;
181 -> 187 ;
188 [label="squared_error = 0.0\nsamples = 1\nvalue = 46.73"] ;
187 -> 188 ;
189 [label="symbol=CMS <= 0.5\nsquared_error = 0.664\nsamples = 2\nvalue = 42.585"] ;
187 -> 189 ;
190 [label="squared_error = 0.0\nsamples = 1\nvalue = 43.4"] ;
189 -> 190 ;
191 [label="squared_error = 0.0\nsamples = 1\nvalue = 41.77"] ;
189 -> 191 ;
192 [label="market_cap <= 12239580160.0\nsquared_error = 21.669\nsamples = 26\nvalue = 56.659"] ;
130 -> 192 ;
193 [label="sector=Real Estate <= 0.5\nsquared_error = 5.826\nsamples = 8\nvalue = 60.539"] ;
192 -> 193 ;
194 [label="52_week_low <= 68.975\nsquared_error = 1.464\nsamples = 6\nvalue = 61.728"] ;
193 -> 194 ;
195 [label="dividend_yield <= 2.293\nsquared_error = 0.155\nsamples = 3\nvalue = 60.577"] ;
194 -> 195 ;
196 [label="price_book <= 5.95\nsquared_error = 0.004\nsamples = 2\nvalue = 60.3"] ;
195 -> 196 ;
197 [label="squared_error = 0.0\nsamples = 1\nvalue = 60.36"] ;
196 -> 197 ;
198 [label="squared_error = 0.0\nsamples = 1\nvalue = 60.24"] ;
196 -> 198 ;
199 [label="squared_error = 0.0\nsamples = 1\nvalue = 61.13"] ;
195 -> 199 ;
200 [label="ebitda <= 964258528.0\nsquared_error = 0.119\nsamples = 3\nvalue = 62.88"] ;
194 -> 200 ;
201 [label="name=Jacobs Engineering Group <= 0.5\nsquared_error = 0.027\nsamples = 2\nvalue = 62.655"] ;
200 -> 201 ;
202 [label="squared_error = 0.0\nsamples = 1\nvalue = 62.49"] ;
201 -> 202 ;
203 [label="squared_error = 0.0\nsamples = 1\nvalue = 62.82"] ;
201 -> 203 ;
204 [label="squared_error = -0.0\nsamples = 1\nvalue = 63.33"] ;
200 -> 204 ;
205 [label="earnings_share <= 2.43\nsquared_error = 1.932\nsamples = 2\nvalue = 56.97"] ;
193 -> 205 ;
206 [label="squared_error = 0.0\nsamples = 1\nvalue = 55.58"] ;
205 -> 206 ;
207 [label="squared_error = 0.0\nsamples = 1\nvalue = 58.36"] ;
205 -> 207 ;
208 [label="market_cap <= 20678451200.0\nsquared_error = 19.047\nsamples = 18\nvalue = 54.934"] ;
192 -> 208 ;
209 [label="earnings_share <= 1.96\nsquared_error = 17.394\nsamples = 7\nvalue = 51.917"] ;
208 -> 209 ;
210 [label="price_sales <= 1.323\nsquared_error = 15.205\nsamples = 4\nvalue = 49.69"] ;
209 -> 210 ;
211 [label="squared_error = 0.0\nsamples = 1\nvalue = 55.54"] ;
210 -> 211 ;
212 [label="dividend_yield <= 5.239\nsquared_error = 5.063\nsamples = 3\nvalue = 47.74"] ;
210 -> 212 ;
213 [label="price_earnings <= 34.575\nsquared_error = 0.01\nsamples = 2\nvalue = 46.15"] ;
212 -> 213 ;
214 [label="squared_error = 0.0\nsamples = 1\nvalue = 46.05"] ;
213 -> 214 ;
215 [label="squared_error = 0.0\nsamples = 1\nvalue = 46.25"] ;
213 -> 215 ;
216 [label="squared_error = 0.0\nsamples = 1\nvalue = 50.92"] ;
212 -> 216 ;
217 [label="symbol=CBS <= 0.5\nsquared_error = 4.881\nsamples = 3\nvalue = 54.887"] ;
209 -> 217 ;
218 [label="market_cap <= 13291010048.0\nsquared_error = 0.176\nsamples = 2\nvalue = 56.43"] ;
217 -> 218 ;
219 [label="squared_error = 0.0\nsamples = 1\nvalue = 56.01"] ;
218 -> 219 ;
220 [label="squared_error = 0.0\nsamples = 1\nvalue = 56.85"] ;
218 -> 220 ;
221 [label="squared_error = 0.0\nsamples = 1\nvalue = 51.8"] ;
217 -> 221 ;
222 [label="price_earnings <= 19.18\nsquared_error = 10.618\nsamples = 11\nvalue = 56.855"] ;
208 -> 222 ;
223 [label="52_week_low <= 62.895\nsquared_error = 1.573\nsamples = 5\nvalue = 54.396"] ;
222 -> 223 ;
224 [label="52_week_high <= 47.222\nsquared_error = 0.102\nsamples = 2\nvalue = 52.97"] ;
223 -> 224 ;
225 [label="squared_error = 0.0\nsamples = 1\nvalue = 53.29"] ;
224 -> 225 ;
226 [label="squared_error = 0.0\nsamples = 1\nvalue = 52.65"] ;
224 -> 226 ;
227 [label="symbol=IP <= 0.5\nsquared_error = 0.294\nsamples = 3\nvalue = 55.347"] ;
223 -> 227 ;
228 [label="symbol=EQR <= 0.5\nsquared_error = 0.07\nsamples = 2\nvalue = 54.995"] ;
227 -> 228 ;
229 [label="squared_error = 0.0\nsamples = 1\nvalue = 54.73"] ;
228 -> 229 ;
230 [label="squared_error = -0.0\nsamples = 1\nvalue = 55.26"] ;
228 -> 230 ;
231 [label="squared_error = 0.0\nsamples = 1\nvalue = 56.05"] ;
227 -> 231 ;
232 [label="price_sales <= 2.75\nsquared_error = 8.921\nsamples = 6\nvalue = 58.903"] ;
222 -> 232 ;
233 [label="price_earnings <= 28.61\nsquared_error = 2.606\nsamples = 3\nvalue = 56.56"] ;
232 -> 233 ;
234 [label="sector=Financials <= 0.5\nsquared_error = 0.41\nsamples = 2\nvalue = 57.64"] ;
233 -> 234 ;
235 [label="squared_error = 0.0\nsamples = 1\nvalue = 57.0"] ;
234 -> 235 ;
236 [label="squared_error = -0.0\nsamples = 1\nvalue = 58.28"] ;
234 -> 236 ;
237 [label="squared_error = 0.0\nsamples = 1\nvalue = 54.4"] ;
233 -> 237 ;
238 [label="dividend_yield <= 2.743\nsquared_error = 4.254\nsamples = 3\nvalue = 61.247"] ;
232 -> 238 ;
239 [label="price_earnings <= 23.48\nsquared_error = 0.0\nsamples = 2\nvalue = 62.705"] ;
238 -> 239 ;
240 [label="squared_error = 0.0\nsamples = 1\nvalue = 62.69"] ;
239 -> 240 ;
241 [label="squared_error = -0.0\nsamples = 1\nvalue = 62.72"] ;
239 -> 241 ;
242 [label="squared_error = 0.0\nsamples = 1\nvalue = 58.33"] ;
238 -> 242 ;
243 [label="52_week_low <= 78.38\nsquared_error = 45.032\nsamples = 37\nvalue = 68.172"] ;
129 -> 243 ;
244 [label="market_cap <= 7205928448.0\nsquared_error = 26.855\nsamples = 16\nvalue = 62.409"] ;
243 -> 244 ;
245 [label="market_cap <= 5050444416.0\nsquared_error = 9.181\nsamples = 2\nvalue = 52.41"] ;
244 -> 245 ;
246 [label="squared_error = 0.0\nsamples = 1\nvalue = 49.38"] ;
245 -> 246 ;
247 [label="squared_error = 0.0\nsamples = 1\nvalue = 55.44"] ;
245 -> 247 ;
248 [label="symbol=HCN <= 0.5\nsquared_error = 13.055\nsamples = 14\nvalue = 63.838"] ;
244 -> 248 ;
249 [label="market_cap <= 36537484288.0\nsquared_error = 7.096\nsamples = 13\nvalue = 64.543"] ;
248 -> 249 ;
250 [label="52_week_low <= 74.35\nsquared_error = 3.973\nsamples = 10\nvalue = 63.464"] ;
249 -> 250 ;
251 [label="price_earnings <= 23.68\nsquared_error = 0.355\nsamples = 4\nvalue = 62.078"] ;
250 -> 251 ;
252 [label="sector=Energy <= 0.5\nsquared_error = 0.031\nsamples = 2\nvalue = 62.615"] ;
251 -> 252 ;
253 [label="squared_error = 0.0\nsamples = 1\nvalue = 62.44"] ;
252 -> 253 ;
254 [label="squared_error = 0.0\nsamples = 1\nvalue = 62.79"] ;
252 -> 254 ;
255 [label="sector=Health Care <= 0.5\nsquared_error = 0.102\nsamples = 2\nvalue = 61.54"] ;
251 -> 255 ;
256 [label="squared_error = 0.0\nsamples = 1\nvalue = 61.86"] ;
255 -> 256 ;
257 [label="squared_error = 0.0\nsamples = 1\nvalue = 61.22"] ;
255 -> 257 ;
258 [label="symbol=PFG <= 0.5\nsquared_error = 4.249\nsamples = 6\nvalue = 64.388"] ;
250 -> 258 ;
259 [label="price_sales <= 2.634\nsquared_error = 1.243\nsamples = 5\nvalue = 65.19"] ;
258 -> 259 ;
260 [label="ebitda <= 1345350016.0\nsquared_error = 0.119\nsamples = 2\nvalue = 66.325"] ;
259 -> 260 ;
261 [label="squared_error = 0.0\nsamples = 1\nvalue = 66.67"] ;
260 -> 261 ;
262 [label="squared_error = -0.0\nsamples = 1\nvalue = 65.98"] ;
260 -> 262 ;
263 [label="price_sales <= 3.244\nsquared_error = 0.56\nsamples = 3\nvalue = 64.433"] ;
259 -> 263 ;
264 [label="squared_error = 0.0\nsamples = 1\nvalue = 63.38"] ;
263 -> 264 ;
265 [label="sector=Health Care <= 0.5\nsquared_error = 0.008\nsamples = 2\nvalue = 64.96"] ;
263 -> 265 ;
266 [label="squared_error = 0.0\nsamples = 1\nvalue = 64.87"] ;
265 -> 266 ;
267 [label="squared_error = -0.0\nsamples = 1\nvalue = 65.05"] ;
265 -> 267 ;
268 [label="squared_error = 0.0\nsamples = 1\nvalue = 60.38"] ;
258 -> 268 ;
269 [label="52_week_high <= 57.0\nsquared_error = 0.688\nsamples = 3\nvalue = 68.14"] ;
249 -> 269 ;
270 [label="squared_error = 0.0\nsamples = 1\nvalue = 67.0"] ;
269 -> 270 ;
271 [label="symbol=CL <= 0.5\nsquared_error = 0.058\nsamples = 2\nvalue = 68.71"] ;
269 -> 271 ;
272 [label="squared_error = 0.0\nsamples = 1\nvalue = 68.47"] ;
271 -> 272 ;
273 [label="squared_error = -0.0\nsamples = 1\nvalue = 68.95"] ;
271 -> 273 ;
274 [label="squared_error = 0.0\nsamples = 1\nvalue = 54.67"] ;
248 -> 274 ;
275 [label="price_sales <= 0.786\nsquared_error = 14.305\nsamples = 21\nvalue = 72.562"] ;
243 -> 275 ;
276 [label="name=United Continental Holdings <= 0.5\nsquared_error = 5.86\nsamples = 5\nvalue = 67.512"] ;
275 -> 276 ;
277 [label="earnings_share <= 4.475\nsquared_error = 1.963\nsamples = 4\nvalue = 68.548"] ;
276 -> 277 ;
278 [label="price_earnings <= 12.835\nsquared_error = 0.835\nsamples = 3\nvalue = 67.88"] ;
277 -> 278 ;
279 [label="squared_error = 0.0\nsamples = 1\nvalue = 66.63"] ;
278 -> 279 ;
280 [label="earnings_share <= 3.795\nsquared_error = 0.081\nsamples = 2\nvalue = 68.505"] ;
278 -> 280 ;
281 [label="squared_error = 0.0\nsamples = 1\nvalue = 68.22"] ;
280 -> 281 ;
282 [label="squared_error = 0.0\nsamples = 1\nvalue = 68.79"] ;
280 -> 282 ;
283 [label="squared_error = -0.0\nsamples = 1\nvalue = 70.55"] ;
277 -> 283 ;
284 [label="squared_error = -0.0\nsamples = 1\nvalue = 63.37"] ;
276 -> 284 ;
285 [label="price_book <= 5.79\nsquared_error = 6.482\nsamples = 16\nvalue = 74.141"] ;
275 -> 285 ;
286 [label="sector=Information Technology <= 0.5\nsquared_error = 3.038\nsamples = 12\nvalue = 73.069"] ;
285 -> 286 ;
287 [label="earnings_share <= 4.75\nsquared_error = 1.435\nsamples = 10\nvalue = 72.482"] ;
286 -> 287 ;
288 [label="52_week_low <= 88.545\nsquared_error = 1.114\nsamples = 7\nvalue = 71.961"] ;
287 -> 288 ;
289 [label="symbol=SRCL <= 0.5\nsquared_error = 0.316\nsamples = 6\nvalue = 71.587"] ;
288 -> 289 ;
290 [label="ebitda <= 4678646912.0\nsquared_error = 0.122\nsamples = 5\nvalue = 71.794"] ;
289 -> 290 ;
291 [label="52_week_low <= 82.6\nsquared_error = 0.006\nsamples = 4\nvalue = 71.965"] ;
290 -> 291 ;
292 [label="52_week_low <= 80.705\nsquared_error = 0.0\nsamples = 2\nvalue = 71.89"] ;
291 -> 292 ;
293 [label="squared_error = 0.0\nsamples = 1\nvalue = 71.87"] ;
292 -> 293 ;
294 [label="squared_error = 0.0\nsamples = 1\nvalue = 71.91"] ;
292 -> 294 ;
295 [label="symbol=PKI <= 0.5\nsquared_error = 0.0\nsamples = 2\nvalue = 72.04"] ;
291 -> 295 ;
296 [label="squared_error = 0.0\nsamples = 1\nvalue = 72.02"] ;
295 -> 296 ;
297 [label="squared_error = 0.0\nsamples = 1\nvalue = 72.06"] ;
295 -> 297 ;
298 [label="squared_error = -0.0\nsamples = 1\nvalue = 71.11"] ;
290 -> 298 ;
299 [label="squared_error = -0.0\nsamples = 1\nvalue = 70.55"] ;
289 -> 299 ;
300 [label="squared_error = 0.0\nsamples = 1\nvalue = 74.21"] ;
288 -> 300 ;
301 [label="dividend_yield <= 3.105\nsquared_error = 0.075\nsamples = 3\nvalue = 73.697"] ;
287 -> 301 ;
302 [label="sector=Financials <= 0.5\nsquared_error = 0.001\nsamples = 2\nvalue = 73.89"] ;
301 -> 302 ;
303 [label="squared_error = 0.0\nsamples = 1\nvalue = 73.92"] ;
302 -> 303 ;
304 [label="squared_error = 0.0\nsamples = 1\nvalue = 73.86"] ;
302 -> 304 ;
305 [label="squared_error = -0.0\nsamples = 1\nvalue = 73.31"] ;
301 -> 305 ;
306 [label="52_week_high <= 58.72\nsquared_error = 0.714\nsamples = 2\nvalue = 76.005"] ;
286 -> 306 ;
307 [label="squared_error = 0.0\nsamples = 1\nvalue = 75.16"] ;
306 -> 307 ;
308 [label="squared_error = -0.0\nsamples = 1\nvalue = 76.85"] ;
306 -> 308 ;
309 [label="market_cap <= 30800606208.0\nsquared_error = 3.037\nsamples = 4\nvalue = 77.355"] ;
285 -> 309 ;
310 [label="market_cap <= 28403435520.0\nsquared_error = 0.384\nsamples = 2\nvalue = 75.68"] ;
309 -> 310 ;
311 [label="squared_error = 0.0\nsamples = 1\nvalue = 76.3"] ;
310 -> 311 ;
312 [label="squared_error = -0.0\nsamples = 1\nvalue = 75.06"] ;
310 -> 312 ;
313 [label="ebitda <= 2430220480.0\nsquared_error = 0.078\nsamples = 2\nvalue = 79.03"] ;
309 -> 313 ;
314 [label="squared_error = 0.0\nsamples = 1\nvalue = 78.75"] ;
313 -> 314 ;
315 [label="squared_error = 0.0\nsamples = 1\nvalue = 79.31"] ;
313 -> 315 ;
316 [label="52_week_low <= 121.83\nsquared_error = 393.021\nsamples = 91\nvalue = 104.732"] ;
2 -> 316 ;
317 [label="52_week_low <= 100.03\nsquared_error = 79.58\nsamples = 47\nvalue = 89.253"] ;
316 -> 317 ;
318 [label="earnings_share <= 3.64\nsquared_error = 27.027\nsamples = 19\nvalue = 81.536"] ;
317 -> 318 ;
319 [label="earnings_share <= 2.37\nsquared_error = 18.487\nsamples = 12\nvalue = 78.878"] ;
318 -> 319 ;
320 [label="symbol=XOM <= 0.5\nsquared_error = 7.505\nsamples = 7\nvalue = 81.213"] ;
319 -> 320 ;
321 [label="52_week_low <= 98.54\nsquared_error = 3.613\nsamples = 6\nvalue = 82.07"] ;
320 -> 321 ;
322 [label="dividend_yield <= 2.249\nsquared_error = 3.172\nsamples = 4\nvalue = 82.912"] ;
321 -> 322 ;
323 [label="52_week_low <= 97.155\nsquared_error = 0.688\nsamples = 3\nvalue = 83.853"] ;
322 -> 323 ;
324 [label="squared_error = 0.0\nsamples = 2\nvalue = 84.44"] ;
323 -> 324 ;
325 [label="squared_error = 0.0\nsamples = 1\nvalue = 82.68"] ;
323 -> 325 ;
326 [label="squared_error = 0.0\nsamples = 1\nvalue = 80.09"] ;
322 -> 326 ;
327 [label="symbol=MCHP <= 0.5\nsquared_error = 0.235\nsamples = 2\nvalue = 80.385"] ;
321 -> 327 ;
328 [label="squared_error = 0.0\nsamples = 1\nvalue = 80.87"] ;
327 -> 328 ;
329 [label="squared_error = 0.0\nsamples = 1\nvalue = 79.9"] ;
327 -> 329 ;
330 [label="squared_error = 0.0\nsamples = 1\nvalue = 76.07"] ;
320 -> 330 ;
331 [label="52_week_low <= 92.933\nsquared_error = 15.537\nsamples = 5\nvalue = 75.608"] ;
319 -> 331 ;
332 [label="symbol=TSS <= 0.5\nsquared_error = 4.364\nsamples = 3\nvalue = 78.537"] ;
331 -> 332 ;
333 [label="52_week_high <= 73.665\nsquared_error = 1.346\nsamples = 2\nvalue = 77.22"] ;
332 -> 333 ;
334 [label="squared_error = 0.0\nsamples = 1\nvalue = 76.06"] ;
333 -> 334 ;
335 [label="squared_error = 0.0\nsamples = 1\nvalue = 78.38"] ;
333 -> 335 ;
336 [label="squared_error = -0.0\nsamples = 1\nvalue = 81.17"] ;
332 -> 336 ;
337 [label="symbol=KHC <= 0.5\nsquared_error = 0.133\nsamples = 2\nvalue = 71.215"] ;
331 -> 337 ;
338 [label="squared_error = 0.0\nsamples = 1\nvalue = 70.85"] ;
337 -> 338 ;
339 [label="squared_error = -0.0\nsamples = 1\nvalue = 71.58"] ;
337 -> 339 ;
340 [label="52_week_low <= 95.253\nsquared_error = 8.785\nsamples = 7\nvalue = 86.093"] ;
318 -> 340 ;
341 [label="52_week_high <= 71.165\nsquared_error = 1.863\nsamples = 2\nvalue = 81.885"] ;
340 -> 341 ;
342 [label="squared_error = 0.0\nsamples = 1\nvalue = 83.25"] ;
341 -> 342 ;
343 [label="squared_error = 0.0\nsamples = 1\nvalue = 80.52"] ;
341 -> 343 ;
344 [label="price_earnings <= 18.815\nsquared_error = 1.638\nsamples = 5\nvalue = 87.776"] ;
340 -> 344 ;
345 [label="name=Raymond James Financial Inc. <= 0.5\nsquared_error = 0.126\nsamples = 2\nvalue = 86.415"] ;
344 -> 345 ;
346 [label="squared_error = 0.0\nsamples = 1\nvalue = 86.77"] ;
345 -> 346 ;
347 [label="squared_error = 0.0\nsamples = 1\nvalue = 86.06"] ;
345 -> 347 ;
348 [label="symbol=IR <= 0.5\nsquared_error = 0.588\nsamples = 3\nvalue = 88.683"] ;
344 -> 348 ;
349 [label="earnings_share <= 4.59\nsquared_error = 0.002\nsamples = 2\nvalue = 89.225"] ;
348 -> 349 ;
350 [label="squared_error = 0.0\nsamples = 1\nvalue = 89.18"] ;
349 -> 350 ;
351 [label="squared_error = 0.0\nsamples = 1\nvalue = 89.27"] ;
349 -> 351 ;
352 [label="squared_error = -0.0\nsamples = 1\nvalue = 87.6"] ;
348 -> 352 ;
353 [label="name=Vornado Realty Trust <= 0.5\nsquared_error = 47.402\nsamples = 28\nvalue = 94.49"] ;
317 -> 353 ;
354 [label="52_week_low <= 107.61\nsquared_error = 18.375\nsamples = 27\nvalue = 95.539"] ;
353 -> 354 ;
355 [label="market_cap <= 8199794432.0\nsquared_error = 4.89\nsamples = 10\nvalue = 91.35"] ;
354 -> 355 ;
356 [label="squared_error = 0.0\nsamples = 1\nvalue = 85.16"] ;
355 -> 356 ;
357 [label="ebitda <= 1004400000.0\nsquared_error = 0.703\nsamples = 9\nvalue = 92.038"] ;
355 -> 357 ;
358 [label="52_week_high <= 67.555\nsquared_error = 0.25\nsamples = 4\nvalue = 91.288"] ;
357 -> 358 ;
359 [label="squared_error = 0.0\nsamples = 1\nvalue = 90.47"] ;
358 -> 359 ;
360 [label="sector=Financials <= 0.5\nsquared_error = 0.037\nsamples = 3\nvalue = 91.56"] ;
358 -> 360 ;
361 [label="ebitda <= 994742016.0\nsquared_error = 0.012\nsamples = 2\nvalue = 91.44"] ;
360 -> 361 ;
362 [label="squared_error = 0.0\nsamples = 1\nvalue = 91.55"] ;
361 -> 362 ;
363 [label="squared_error = 0.0\nsamples = 1\nvalue = 91.33"] ;
361 -> 363 ;
364 [label="squared_error = 0.0\nsamples = 1\nvalue = 91.8"] ;
360 -> 364 ;
365 [label="market_cap <= 14910753792.0\nsquared_error = 0.255\nsamples = 5\nvalue = 92.638"] ;
357 -> 365 ;
366 [label="squared_error = 0.0\nsamples = 1\nvalue = 93.57"] ;
365 -> 366 ;
367 [label="earnings_share <= 2.585\nsquared_error = 0.047\nsamples = 4\nvalue = 92.405"] ;
365 -> 367 ;
368 [label="squared_error = 0.0\nsamples = 1\nvalue = 92.74"] ;
367 -> 368 ;
369 [label="52_week_high <= 75.368\nsquared_error = 0.013\nsamples = 3\nvalue = 92.293"] ;
367 -> 369 ;
370 [label="squared_error = 0.0\nsamples = 1\nvalue = 92.44"] ;
369 -> 370 ;
371 [label="earnings_share <= 3.49\nsquared_error = 0.004\nsamples = 2\nvalue = 92.22"] ;
369 -> 371 ;
372 [label="squared_error = 0.0\nsamples = 1\nvalue = 92.28"] ;
371 -> 372 ;
373 [label="squared_error = -0.0\nsamples = 1\nvalue = 92.16"] ;
371 -> 373 ;
374 [label="price_book <= 3.71\nsquared_error = 9.917\nsamples = 17\nvalue = 98.002"] ;
354 -> 374 ;
375 [label="sector=Real Estate <= 0.5\nsquared_error = 4.31\nsamples = 6\nvalue = 95.068"] ;
374 -> 375 ;
376 [label="dividend_yield <= 1.637\nsquared_error = 0.402\nsamples = 5\nvalue = 95.96"] ;
375 -> 376 ;
377 [label="earnings_share <= 2.735\nsquared_error = 0.0\nsamples = 2\nvalue = 95.25"] ;
376 -> 377 ;
378 [label="squared_error = 0.0\nsamples = 1\nvalue = 95.23"] ;
377 -> 378 ;
379 [label="squared_error = 0.0\nsamples = 1\nvalue = 95.27"] ;
377 -> 379 ;
380 [label="52_week_high <= 75.31\nsquared_error = 0.109\nsamples = 3\nvalue = 96.433"] ;
376 -> 380 ;
381 [label="squared_error = 0.0\nsamples = 1\nvalue = 96.9"] ;
380 -> 381 ;
382 [label="squared_error = 0.0\nsamples = 2\nvalue = 96.2"] ;
380 -> 382 ;
383 [label="squared_error = -0.0\nsamples = 1\nvalue = 90.61"] ;
375 -> 383 ;
384 [label="price_sales <= 2.087\nsquared_error = 5.719\nsamples = 11\nvalue = 99.603"] ;
374 -> 384 ;
385 [label="price_earnings <= 22.52\nsquared_error = 0.423\nsamples = 2\nvalue = 95.66"] ;
384 -> 385 ;
386 [label="squared_error = 0.0\nsamples = 1\nvalue = 96.31"] ;
385 -> 386 ;
387 [label="squared_error = 0.0\nsamples = 1\nvalue = 95.01"] ;
385 -> 387 ;
388 [label="dividend_yield <= 0.019\nsquared_error = 2.674\nsamples = 9\nvalue = 100.479"] ;
384 -> 388 ;
389 [label="squared_error = 0.0\nsamples = 1\nvalue = 104.03"] ;
388 -> 389 ;
390 [label="sector=Information Technology <= 0.5\nsquared_error = 1.235\nsamples = 8\nvalue = 100.035"] ;
388 -> 390 ;
391 [label="name=Tiffany & Co. <= 0.5\nsquared_error = 0.515\nsamples = 4\nvalue = 100.842"] ;
390 -> 391 ;
392 [label="sector=Energy <= 0.5\nsquared_error = 0.022\nsamples = 3\nvalue = 101.25"] ;
391 -> 392 ;
393 [label="price_earnings <= 20.845\nsquared_error = 0.0\nsamples = 2\nvalue = 101.355"] ;
392 -> 393 ;
394 [label="squared_error = 0.0\nsamples = 1\nvalue = 101.35"] ;
393 -> 394 ;
395 [label="squared_error = 0.0\nsamples = 1\nvalue = 101.36"] ;
393 -> 395 ;
396 [label="squared_error = -0.0\nsamples = 1\nvalue = 101.04"] ;
392 -> 396 ;
397 [label="squared_error = 0.0\nsamples = 1\nvalue = 99.62"] ;
391 -> 397 ;
398 [label="name=Global Payments Inc. <= 0.5\nsquared_error = 0.65\nsamples = 4\nvalue = 99.227"] ;
390 -> 398 ;
399 [label="name=Skyworks Solutions <= 0.5\nsquared_error = 0.042\nsamples = 3\nvalue = 98.773"] ;
398 -> 399 ;
400 [label="market_cap <= 16352330752.0\nsquared_error = 0.01\nsamples = 2\nvalue = 98.64"] ;
399 -> 400 ;
401 [label="squared_error = 0.0\nsamples = 1\nvalue = 98.54"] ;
400 -> 401 ;
402 [label="squared_error = 0.0\nsamples = 1\nvalue = 98.74"] ;
400 -> 402 ;
403 [label="squared_error = -0.0\nsamples = 1\nvalue = 99.04"] ;
399 -> 403 ;
404 [label="squared_error = -0.0\nsamples = 1\nvalue = 100.59"] ;
398 -> 404 ;
405 [label="squared_error = 0.0\nsamples = 1\nvalue = 66.18"] ;
353 -> 405 ;
406 [label="52_week_low <= 149.42\nsquared_error = 198.532\nsamples = 44\nvalue = 121.266"] ;
316 -> 406 ;
407 [label="52_week_low <= 135.59\nsquared_error = 76.669\nsamples = 30\nvalue = 114.095"] ;
406 -> 407 ;
408 [label="dividend_yield <= 2.093\nsquared_error = 33.59\nsamples = 16\nvalue = 109.902"] ;
407 -> 408 ;
409 [label="ebitda <= 61250000.0\nsquared_error = 20.019\nsamples = 7\nvalue = 113.621"] ;
408 -> 409 ;
410 [label="squared_error = 0.0\nsamples = 1\nvalue = 104.81"] ;
409 -> 410 ;
411 [label="price_book <= 7.64\nsquared_error = 8.259\nsamples = 6\nvalue = 115.09"] ;
409 -> 411 ;
412 [label="dividend_yield <= 0.959\nsquared_error = 3.493\nsamples = 3\nvalue = 112.663"] ;
411 -> 412 ;
413 [label="symbol=VAR <= 0.5\nsquared_error = 1.051\nsamples = 2\nvalue = 113.845"] ;
412 -> 413 ;
414 [label="squared_error = 0.0\nsamples = 1\nvalue = 114.87"] ;
413 -> 414 ;
415 [label="squared_error = -0.0\nsamples = 1\nvalue = 112.82"] ;
413 -> 415 ;
416 [label="squared_error = 0.0\nsamples = 1\nvalue = 110.3"] ;
412 -> 416 ;
417 [label="price_earnings <= 24.05\nsquared_error = 1.247\nsamples = 3\nvalue = 117.517"] ;
411 -> 417 ;
418 [label="squared_error = 0.0\nsamples = 1\nvalue = 119.08"] ;
417 -> 418 ;
419 [label="52_week_low <= 128.83\nsquared_error = 0.038\nsamples = 2\nvalue = 116.735"] ;
417 -> 419 ;
420 [label="squared_error = 0.0\nsamples = 1\nvalue = 116.93"] ;
419 -> 420 ;
421 [label="squared_error = -0.0\nsamples = 1\nvalue = 116.54"] ;
419 -> 421 ;
422 [label="52_week_high <= 101.611\nsquared_error = 25.015\nsamples = 9\nvalue = 107.009"] ;
408 -> 422 ;
423 [label="dividend_yield <= 3.418\nsquared_error = 11.6\nsamples = 5\nvalue = 103.354"] ;
422 -> 423 ;
424 [label="earnings_share <= 6.79\nsquared_error = 3.953\nsamples = 3\nvalue = 105.807"] ;
423 -> 424 ;
425 [label="squared_error = 0.0\nsamples = 1\nvalue = 108.25"] ;
424 -> 425 ;
426 [label="dividend_yield <= 2.982\nsquared_error = 1.452\nsamples = 2\nvalue = 104.585"] ;
424 -> 426 ;
427 [label="squared_error = 0.0\nsamples = 1\nvalue = 103.38"] ;
426 -> 427 ;
428 [label="squared_error = -0.0\nsamples = 1\nvalue = 105.79"] ;
426 -> 428 ;
429 [label="52_week_low <= 125.39\nsquared_error = 0.511\nsamples = 2\nvalue = 99.675"] ;
423 -> 429 ;
430 [label="squared_error = 0.0\nsamples = 1\nvalue = 100.39"] ;
429 -> 430 ;
431 [label="squared_error = -0.0\nsamples = 1\nvalue = 98.96"] ;
429 -> 431 ;
432 [label="dividend_yield <= 2.996\nsquared_error = 4.213\nsamples = 4\nvalue = 111.578"] ;
422 -> 432 ;
433 [label="price_book <= 32.35\nsquared_error = 0.189\nsamples = 2\nvalue = 109.715"] ;
432 -> 433 ;
434 [label="squared_error = 0.0\nsamples = 1\nvalue = 110.15"] ;
433 -> 434 ;
435 [label="squared_error = -0.0\nsamples = 1\nvalue = 109.28"] ;
433 -> 435 ;
436 [label="52_week_high <= 104.72\nsquared_error = 1.3\nsamples = 2\nvalue = 113.44"] ;
432 -> 436 ;
437 [label="squared_error = 0.0\nsamples = 1\nvalue = 112.3"] ;
436 -> 437 ;
438 [label="squared_error = 0.0\nsamples = 1\nvalue = 114.58"] ;
436 -> 438 ;
439 [label="ebitda <= 1621422976.0\nsquared_error = 82.837\nsamples = 14\nvalue = 118.888"] ;
407 -> 439 ;
440 [label="52_week_high <= 97.07\nsquared_error = 23.621\nsamples = 8\nvalue = 113.124"] ;
439 -> 440 ;
441 [label="price_book <= 3.785\nsquared_error = 10.634\nsamples = 4\nvalue = 109.7"] ;
440 -> 441 ;
442 [label="52_week_low <= 147.165\nsquared_error = 2.706\nsamples = 2\nvalue = 106.825"] ;
441 -> 442 ;
443 [label="squared_error = 0.0\nsamples = 1\nvalue = 105.18"] ;
442 -> 443 ;
444 [label="squared_error = 0.0\nsamples = 1\nvalue = 108.47"] ;
442 -> 444 ;
445 [label="sector=Financials <= 0.5\nsquared_error = 2.031\nsamples = 2\nvalue = 112.575"] ;
441 -> 445 ;
446 [label="squared_error = 0.0\nsamples = 1\nvalue = 114.0"] ;
445 -> 446 ;
447 [label="squared_error = 0.0\nsamples = 1\nvalue = 111.15"] ;
445 -> 447 ;
448 [label="earnings_share <= 3.015\nsquared_error = 13.164\nsamples = 4\nvalue = 116.548"] ;
440 -> 448 ;
449 [label="price_book <= 8.31\nsquared_error = 1.177\nsamples = 2\nvalue = 113.175"] ;
448 -> 449 ;
450 [label="squared_error = 0.0\nsamples = 1\nvalue = 112.09"] ;
449 -> 450 ;
451 [label="squared_error = -0.0\nsamples = 1\nvalue = 114.26"] ;
449 -> 451 ;
452 [label="dividend_yield <= 1.692\nsquared_error = 2.402\nsamples = 2\nvalue = 119.92"] ;
448 -> 452 ;
453 [label="squared_error = 0.0\nsamples = 1\nvalue = 121.47"] ;
452 -> 453 ;
454 [label="squared_error = 0.0\nsamples = 1\nvalue = 118.37"] ;
452 -> 454 ;
455 [label="52_week_low <= 137.475\nsquared_error = 58.424\nsamples = 6\nvalue = 126.573"] ;
439 -> 455 ;
456 [label="name=Royal Caribbean Cruises Ltd <= 0.5\nsquared_error = 28.944\nsamples = 2\nvalue = 117.07"] ;
455 -> 456 ;
457 [label="squared_error = 0.0\nsamples = 1\nvalue = 111.69"] ;
456 -> 457 ;
458 [label="squared_error = 0.0\nsamples = 1\nvalue = 122.45"] ;
456 -> 458 ;
459 [label="symbol=UTX <= 0.5\nsquared_error = 5.43\nsamples = 4\nvalue = 131.325"] ;
455 -> 459 ;
460 [label="dividend_yield <= 1.052\nsquared_error = 0.669\nsamples = 3\nvalue = 132.607"] ;
459 -> 460 ;
461 [label="52_week_high <= 98.05\nsquared_error = 0.017\nsamples = 2\nvalue = 133.18"] ;
460 -> 461 ;
462 [label="squared_error = 0.0\nsamples = 1\nvalue = 133.31"] ;
461 -> 462 ;
463 [label="squared_error = 0.0\nsamples = 1\nvalue = 133.05"] ;
461 -> 463 ;
464 [label="squared_error = 0.0\nsamples = 1\nvalue = 131.46"] ;
460 -> 464 ;
465 [label="squared_error = -0.0\nsamples = 1\nvalue = 127.48"] ;
459 -> 465 ;
466 [label="52_week_low <= 168.39\nsquared_error = 113.39\nsamples = 14\nvalue = 136.631"] ;
406 -> 466 ;
467 [label="price_sales <= 3.87\nsquared_error = 61.715\nsamples = 13\nvalue = 138.708"] ;
466 -> 467 ;
468 [label="price_earnings <= 22.21\nsquared_error = 41.181\nsamples = 6\nvalue = 133.57"] ;
467 -> 468 ;
469 [label="dividend_yield <= 0.563\nsquared_error = 8.852\nsamples = 4\nvalue = 137.658"] ;
468 -> 469 ;
470 [label="squared_error = 0.0\nsamples = 1\nvalue = 142.68"] ;
469 -> 470 ;
471 [label="52_week_low <= 151.665\nsquared_error = 0.591\nsamples = 3\nvalue = 135.983"] ;
469 -> 471 ;
472 [label="squared_error = 0.0\nsamples = 1\nvalue = 135.01"] ;
471 -> 472 ;
473 [label="dividend_yield <= 1.522\nsquared_error = 0.176\nsamples = 2\nvalue = 136.47"] ;
471 -> 473 ;
474 [label="squared_error = 0.0\nsamples = 1\nvalue = 136.05"] ;
473 -> 474 ;
475 [label="squared_error = 0.0\nsamples = 1\nvalue = 136.89"] ;
473 -> 475 ;
476 [label="market_cap <= 18131298304.0\nsquared_error = 5.593\nsamples = 2\nvalue = 125.395"] ;
468 -> 476 ;
477 [label="squared_error = 0.0\nsamples = 1\nvalue = 127.76"] ;
476 -> 477 ;
478 [label="squared_error = -0.0\nsamples = 1\nvalue = 123.03"] ;
476 -> 478 ;
479 [label="52_week_low <= 157.46\nsquared_error = 37.286\nsamples = 7\nvalue = 143.113"] ;
467 -> 479 ;
480 [label="symbol=AMT <= 0.5\nsquared_error = 3.386\nsamples = 2\nvalue = 135.41"] ;
479 -> 480 ;
481 [label="squared_error = 0.0\nsamples = 1\nvalue = 137.25"] ;
480 -> 481 ;
482 [label="squared_error = 0.0\nsamples = 1\nvalue = 133.57"] ;
480 -> 482 ;
483 [label="ebitda <= 1694595008.0\nsquared_error = 17.619\nsamples = 5\nvalue = 146.194"] ;
479 -> 483 ;
484 [label="ebitda <= 619000000.0\nsquared_error = 1.904\nsamples = 2\nvalue = 150.76"] ;
483 -> 484 ;
485 [label="squared_error = 0.0\nsamples = 1\nvalue = 149.38"] ;
484 -> 485 ;
486 [label="squared_error = -0.0\nsamples = 1\nvalue = 152.14"] ;
484 -> 486 ;
487 [label="dividend_yield <= 1.1\nsquared_error = 4.93\nsamples = 3\nvalue = 143.15"] ;
483 -> 487 ;
488 [label="squared_error = 0.0\nsamples = 1\nvalue = 140.09"] ;
487 -> 488 ;
489 [label="52_week_low <= 163.295\nsquared_error = 0.372\nsamples = 2\nvalue = 144.68"] ;
487 -> 489 ;
490 [label="squared_error = 0.0\nsamples = 1\nvalue = 145.29"] ;
489 -> 490 ;
491 [label="squared_error = -0.0\nsamples = 1\nvalue = 144.07"] ;
489 -> 491 ;
492 [label="squared_error = -0.0\nsamples = 1\nvalue = 109.63"] ;
466 -> 492 ;
493 [label="52_week_high <= 220.94\nsquared_error = 8990.825\nsamples = 50\nvalue = 224.05"] ;
1 -> 493 ;
494 [label="52_week_high <= 181.433\nsquared_error = 1226.366\nsamples = 42\nvalue = 188.509"] ;
493 -> 494 ;
495 [label="52_week_low <= 203.72\nsquared_error = 338.791\nsamples = 31\nvalue = 171.326"] ;
494 -> 495 ;
496 [label="52_week_low <= 191.335\nsquared_error = 83.169\nsamples = 19\nvalue = 160.893"] ;
495 -> 496 ;
497 [label="name=S&P Global, Inc. <= 0.5\nsquared_error = 42.926\nsamples = 13\nvalue = 156.175"] ;
496 -> 497 ;
498 [label="name=Laboratory Corp. of America Holding <= 0.5\nsquared_error = 19.996\nsamples = 12\nvalue = 154.747"] ;
497 -> 498 ;
499 [label="price_book <= 62.27\nsquared_error = 10.431\nsamples = 11\nvalue = 153.773"] ;
498 -> 499 ;
500 [label="market_cap <= 52067108864.0\nsquared_error = 4.075\nsamples = 9\nvalue = 152.52"] ;
499 -> 500 ;
501 [label="market_cap <= 20074136064.0\nsquared_error = 1.569\nsamples = 7\nvalue = 151.626"] ;
500 -> 501 ;
502 [label="squared_error = 0.0\nsamples = 1\nvalue = 149.32"] ;
501 -> 502 ;
503 [label="symbol=MCK <= 0.5\nsquared_error = 0.796\nsamples = 6\nvalue = 152.01"] ;
501 -> 503 ;
504 [label="name=Vertex Pharmaceuticals Inc <= 0.5\nsquared_error = 0.195\nsamples = 5\nvalue = 152.366"] ;
503 -> 504 ;
505 [label="symbol=SPG <= 0.5\nsquared_error = 0.06\nsamples = 4\nvalue = 152.558"] ;
504 -> 505 ;
506 [label="price_earnings <= 18.315\nsquared_error = 0.017\nsamples = 3\nvalue = 152.683"] ;
505 -> 506 ;
507 [label="squared_error = 0.0\nsamples = 1\nvalue = 152.5"] ;
506 -> 507 ;
508 [label="name=Intuit Inc. <= 0.5\nsquared_error = 0.001\nsamples = 2\nvalue = 152.775"] ;
506 -> 508 ;
509 [label="squared_error = 0.0\nsamples = 1\nvalue = 152.8"] ;
508 -> 509 ;
510 [label="squared_error = 0.0\nsamples = 1\nvalue = 152.75"] ;
508 -> 510 ;
511 [label="squared_error = 0.0\nsamples = 1\nvalue = 152.18"] ;
505 -> 511 ;
512 [label="squared_error = -0.0\nsamples = 1\nvalue = 151.6"] ;
504 -> 512 ;
513 [label="squared_error = 0.0\nsamples = 1\nvalue = 150.23"] ;
503 -> 513 ;
514 [label="52_week_high <= 128.82\nsquared_error = 0.25\nsamples = 2\nvalue = 155.65"] ;
500 -> 514 ;
515 [label="squared_error = 0.0\nsamples = 1\nvalue = 156.15"] ;
514 -> 515 ;
516 [label="squared_error = -0.0\nsamples = 1\nvalue = 155.15"] ;
514 -> 516 ;
517 [label="name=SBA Communications <= 0.5\nsquared_error = 0.194\nsamples = 2\nvalue = 159.41"] ;
499 -> 517 ;
518 [label="squared_error = 0.0\nsamples = 1\nvalue = 158.97"] ;
517 -> 518 ;
519 [label="squared_error = 0.0\nsamples = 1\nvalue = 159.85"] ;
517 -> 519 ;
520 [label="squared_error = 0.0\nsamples = 1\nvalue = 165.46"] ;
498 -> 520 ;
521 [label="squared_error = 0.0\nsamples = 1\nvalue = 173.31"] ;
497 -> 521 ;
522 [label="sector=Consumer Staples <= 0.5\nsquared_error = 17.601\nsamples = 6\nvalue = 171.117"] ;
496 -> 522 ;
523 [label="price_book <= 2.665\nsquared_error = 7.646\nsamples = 5\nvalue = 169.618"] ;
522 -> 523 ;
524 [label="squared_error = 0.0\nsamples = 1\nvalue = 164.95"] ;
523 -> 524 ;
525 [label="ebitda <= 6830999936.0\nsquared_error = 2.747\nsamples = 4\nvalue = 170.785"] ;
523 -> 525 ;
526 [label="52_week_high <= 133.045\nsquared_error = 0.004\nsamples = 2\nvalue = 169.22"] ;
525 -> 526 ;
527 [label="squared_error = 0.0\nsamples = 1\nvalue = 169.16"] ;
526 -> 527 ;
528 [label="squared_error = 0.0\nsamples = 1\nvalue = 169.28"] ;
526 -> 528 ;
529 [label="52_week_low <= 198.275\nsquared_error = 0.593\nsamples = 2\nvalue = 172.35"] ;
525 -> 529 ;
530 [label="squared_error = 0.0\nsamples = 1\nvalue = 171.58"] ;
529 -> 530 ;
531 [label="squared_error = -0.0\nsamples = 1\nvalue = 173.12"] ;
529 -> 531 ;
532 [label="squared_error = 0.0\nsamples = 1\nvalue = 178.61"] ;
522 -> 532 ;
533 [label="price_earnings <= 17.2\nsquared_error = 298.311\nsamples = 12\nvalue = 187.845"] ;
495 -> 533 ;
534 [label="symbol=AMG <= 0.5\nsquared_error = 56.791\nsamples = 3\nvalue = 168.513"] ;
533 -> 534 ;
535 [label="sector=Health Care <= 0.5\nsquared_error = 0.97\nsamples = 2\nvalue = 163.215"] ;
534 -> 535 ;
536 [label="squared_error = 0.0\nsamples = 1\nvalue = 162.23"] ;
535 -> 536 ;
537 [label="squared_error = 0.0\nsamples = 1\nvalue = 164.2"] ;
535 -> 537 ;
538 [label="squared_error = 0.0\nsamples = 1\nvalue = 179.11"] ;
534 -> 538 ;
539 [label="52_week_low <= 241.5\nsquared_error = 212.723\nsamples = 9\nvalue = 194.289"] ;
533 -> 539 ;
540 [label="ebitda <= 1530901440.0\nsquared_error = 55.366\nsamples = 7\nvalue = 187.347"] ;
539 -> 540 ;
541 [label="ebitda <= 955465984.0\nsquared_error = 12.816\nsamples = 4\nvalue = 192.818"] ;
540 -> 541 ;
542 [label="price_earnings <= 22.375\nsquared_error = 1.234\nsamples = 3\nvalue = 190.827"] ;
541 -> 542 ;
543 [label="squared_error = 0.0\nsamples = 1\nvalue = 189.27"] ;
542 -> 543 ;
544 [label="price_book <= 3.865\nsquared_error = 0.034\nsamples = 2\nvalue = 191.605"] ;
542 -> 544 ;
545 [label="squared_error = 0.0\nsamples = 1\nvalue = 191.42"] ;
544 -> 545 ;
546 [label="squared_error = -0.0\nsamples = 1\nvalue = 191.79"] ;
544 -> 546 ;
547 [label="squared_error = 0.0\nsamples = 1\nvalue = 198.79"] ;
541 -> 547 ;
548 [label="market_cap <= 28340104192.0\nsquared_error = 18.999\nsamples = 3\nvalue = 180.053"] ;
540 -> 548 ;
549 [label="squared_error = 0.0\nsamples = 1\nvalue = 174.51"] ;
548 -> 549 ;
550 [label="ebitda <= 2231421504.0\nsquared_error = 5.452\nsamples = 2\nvalue = 182.825"] ;
548 -> 550 ;
551 [label="squared_error = 0.0\nsamples = 1\nvalue = 180.49"] ;
550 -> 551 ;
552 [label="squared_error = 0.0\nsamples = 1\nvalue = 185.16"] ;
550 -> 552 ;
553 [label="price_sales <= 7.115\nsquared_error = 4.516\nsamples = 2\nvalue = 218.585"] ;
539 -> 553 ;
554 [label="squared_error = 0.0\nsamples = 1\nvalue = 216.46"] ;
553 -> 554 ;
555 [label="squared_error = 0.0\nsamples = 1\nvalue = 220.71"] ;
553 -> 555 ;
556 [label="52_week_high <= 203.165\nsquared_error = 550.873\nsamples = 11\nvalue = 236.932"] ;
494 -> 556 ;
557 [label="price_sales <= 1.487\nsquared_error = 381.08\nsamples = 6\nvalue = 223.112"] ;
556 -> 557 ;
558 [label="squared_error = 0.0\nsamples = 1\nvalue = 262.37"] ;
557 -> 558 ;
559 [label="price_sales <= 5.635\nsquared_error = 87.405\nsamples = 5\nvalue = 215.26"] ;
557 -> 559 ;
560 [label="symbol=GD <= 0.5\nsquared_error = 1.701\nsamples = 3\nvalue = 207.853"] ;
559 -> 560 ;
561 [label="price_book <= 5.535\nsquared_error = 0.112\nsamples = 2\nvalue = 208.755"] ;
560 -> 561 ;
562 [label="squared_error = 0.0\nsamples = 1\nvalue = 208.42"] ;
561 -> 562 ;
563 [label="squared_error = 0.0\nsamples = 1\nvalue = 209.09"] ;
561 -> 563 ;
564 [label="squared_error = 0.0\nsamples = 1\nvalue = 206.05"] ;
560 -> 564 ;
565 [label="ebitda <= 3815849984.0\nsquared_error = 10.24\nsamples = 2\nvalue = 226.37"] ;
559 -> 565 ;
566 [label="squared_error = 0.0\nsamples = 1\nvalue = 223.17"] ;
565 -> 566 ;
567 [label="squared_error = -0.0\nsamples = 1\nvalue = 229.57"] ;
565 -> 567 ;
568 [label="52_week_high <= 206.265\nsquared_error = 250.392\nsamples = 5\nvalue = 253.516"] ;
556 -> 568 ;
569 [label="squared_error = 0.0\nsamples = 1\nvalue = 283.0"] ;
568 -> 569 ;
570 [label="52_week_low <= 282.59\nsquared_error = 41.332\nsamples = 4\nvalue = 246.145"] ;
568 -> 570 ;
571 [label="52_week_high <= 209.31\nsquared_error = 6.806\nsamples = 3\nvalue = 242.67"] ;
570 -> 571 ;
572 [label="52_week_high <= 208.905\nsquared_error = 0.053\nsamples = 2\nvalue = 240.83"] ;
571 -> 572 ;
573 [label="squared_error = 0.0\nsamples = 1\nvalue = 241.06"] ;
572 -> 573 ;
574 [label="squared_error = 0.0\nsamples = 1\nvalue = 240.6"] ;
572 -> 574 ;
575 [label="squared_error = -0.0\nsamples = 1\nvalue = 246.35"] ;
571 -> 575 ;
576 [label="squared_error = 0.0\nsamples = 1\nvalue = 256.57"] ;
570 -> 576 ;
577 [label="52_week_low <= 569.036\nsquared_error = 8304.78\nsamples = 8\nvalue = 410.645"] ;
493 -> 577 ;
578 [label="ebitda <= 1865156032.0\nsquared_error = 1087.63\nsamples = 6\nvalue = 362.463"] ;
577 -> 578 ;
579 [label="52_week_high <= 297.503\nsquared_error = 197.543\nsamples = 2\nvalue = 395.925"] ;
578 -> 579 ;
580 [label="squared_error = 0.0\nsamples = 1\nvalue = 381.87"] ;
579 -> 580 ;
581 [label="squared_error = 0.0\nsamples = 1\nvalue = 409.98"] ;
579 -> 581 ;
582 [label="symbol=SHW <= 0.5\nsquared_error = 692.911\nsamples = 4\nvalue = 345.732"] ;
578 -> 582 ;
583 [label="price_earnings <= 95.425\nsquared_error = 142.958\nsamples = 3\nvalue = 331.76"] ;
582 -> 583 ;
584 [label="dividend_yield <= 0.652\nsquared_error = 0.483\nsamples = 2\nvalue = 323.315"] ;
583 -> 584 ;
585 [label="squared_error = 0.0\nsamples = 1\nvalue = 322.62"] ;
584 -> 585 ;
586 [label="squared_error = -0.0\nsamples = 1\nvalue = 324.01"] ;
584 -> 586 ;
587 [label="squared_error = 0.0\nsamples = 1\nvalue = 348.65"] ;
583 -> 587 ;
588 [label="squared_error = -0.0\nsamples = 1\nvalue = 387.65"] ;
582 -> 588 ;
589 [label="price_earnings <= 29.025\nsquared_error = 2098.556\nsamples = 2\nvalue = 555.19"] ;
577 -> 589 ;
590 [label="squared_error = 0.0\nsamples = 1\nvalue = 509.38"] ;
589 -> 590 ;
591 [label="squared_error = -0.0\nsamples = 1\nvalue = 601.0"] ;
589 -> 591 ;
592 [label="52_week_low <= 1348.0\nsquared_error = 139085.81\nsamples = 5\nvalue = 1176.872"] ;
0 -> 592 [labeldistance=2.5, labelangle=-45, headlabel="False"] ;
593 [label="earnings_share <= 33.18\nsquared_error = 18188.995\nsamples = 3\nvalue = 909.267"] ;
592 -> 593 ;
594 [label="symbol=GOOG <= 0.5\nsquared_error = 9.579\nsamples = 2\nvalue = 1004.615"] ;
593 -> 594 ;
595 [label="squared_error = 0.0\nsamples = 1\nvalue = 1007.71"] ;
594 -> 595 ;
596 [label="squared_error = 0.0\nsamples = 1\nvalue = 1001.52"] ;
594 -> 596 ;
597 [label="squared_error = -0.0\nsamples = 1\nvalue = 718.57"] ;
593 -> 597 ;
598 [label="price_book <= 15.6\nsquared_error = 51883.728\nsamples = 2\nvalue = 1578.28"] ;
592 -> 598 ;
599 [label="squared_error = 0.0\nsamples = 1\nvalue = 1806.06"] ;
598 -> 599 ;
600 [label="squared_error = 0.0\nsamples = 1\nvalue = 1350.5"] ;
598 -> 600 ;
}